Language model created by QuickLM on Mon Jun 19 17:43:37 EDT 2017
Copyright (c) 1996-2010 Carnegie Mellon University and Alexander I. Rudnicky

The model is in standard ARPA format, designed by Doug Paul while he was at MITRE.

The code that was used to produce this language model is available in Open Source.
Please visit http://www.speech.cs.cmu.edu/tools/ for more information

The (fixed) discount mass is 0.5. The backoffs are computed using the ratio method.
This model based on a corpus of 78 sentences and 84 words

\data\
ngram 1=84
ngram 2=163
ngram 3=176

\1-grams:
-0.9944 </s> -0.3010
-0.9944 <s> -0.2328
-2.8865 ABOUT -0.2965
-2.5855 AM -0.2976
-2.8865 ARE -0.2965
-2.5855 CAN -0.2965
-1.9322 CHROME -0.2314
-2.8865 CLOS -0.2999
-1.7725 CLOSE -0.2701
-2.1083 DEFENDER -0.2534
-2.8865 DONT -0.2999
-2.8865 DRIVE -0.2546
-2.8865 EJECT -0.3005
-1.8451 EXPLORER -0.2314
-2.4094 FACEBOOK -0.2546
-2.5855 FATHER -0.2546
-2.5855 FILE -0.2948
-2.8865 FIND -0.3005
-1.9322 FIREFOX -0.2314
-2.4094 GITHUB -0.2546
-2.4094 GMAIL -0.2546
-2.4094 GOOGLE -0.2546
-2.8865 HAHAHA -0.2546
-2.8865 HAZEL -0.2546
-2.8865 HEAD -0.2546
-2.8865 HELP -0.2999
-2.8865 HI -0.2546
-2.8865 HIT -0.2982
-2.8865 HOW -0.3005
-2.2844 I -0.2988
-1.9322 INTERNET -0.2948
-2.8865 IP -0.2546
-2.4094 IS -0.2976
-2.8865 IT -0.2546
-2.8865 JENNIFER -0.3005
-2.5855 LIKE -0.2976
-2.8865 LOPEZ -0.2546
-2.8865 MAGNIFIER -0.2546
-2.8865 MAKE -0.2965
-2.5855 MANAGER -0.2546
-2.5855 ME -0.2540
-2.5855 MEDIAPLAYER -0.2546
-2.8865 MEET -0.2965
-2.5855 MONITORING -0.2546
-2.8865 NAME -0.2546
-2.5855 NARRATOR -0.2546
-2.8865 NICE -0.3005
-2.5855 NOTE -0.2546
-2.5855 NOTEPAD -0.2546
-2.8865 OLD -0.3005
-1.3302 OPEN -0.2553
-2.8865 OVI -0.2546
-2.5855 PAINT -0.2546
-2.8865 QUICK -0.2999
-2.8865 REBOOT -0.2959
-2.4094 RUN -0.2540
-2.5855 SCAN -0.2959
-2.8865 SHUTDOWN -0.2959
-2.8865 SING -0.2546
-2.8865 SINS -0.2999
-2.8865 SLEEP -0.2959
-2.5855 SNIPPING -0.2999
-2.8865 SONG -0.2546
-2.8865 START -0.2999
-2.5855 STICKY -0.2999
-2.8865 STOP -0.2999
-2.5855 TASK -0.2999
-2.8865 TELL -0.2999
-2.8865 THANK -0.2965
-2.8865 TIME -0.2993
-2.8865 TO -0.3005
-2.5855 TOOL -0.2546
-2.8865 TREE -0.2546
-2.4094 TWITTER -0.2546
-2.5855 WEATHER -0.2546
-2.8865 WELCOME -0.2546
-2.5855 WHAT -0.2988
-2.5855 WHO -0.2988
-2.4094 WIKIPEDIA -0.2546
-1.9322 WINDOWS -0.2496
-2.8865 WOW -0.2965
-1.9834 YOU -0.2521
-2.1875 YOUR -0.2982
-2.4094 YOUTUBE -0.2546

\2-grams:
-1.8921 <s> CAN 0.0000
-1.3480 <s> CHROME -0.0872
-2.1931 <s> CLOS 0.0000
-1.0792 <s> CLOSE 0.0000
-1.8921 <s> DEFENDER -0.2218
-2.1931 <s> EJECT 0.0000
-2.1931 <s> FIND 0.0000
-1.3480 <s> FIREFOX -0.0872
-2.1931 <s> HAHAHA 0.0000
-2.1931 <s> HI 0.0000
-2.1931 <s> HOW 0.0000
-1.5911 <s> I 0.0000
-1.3480 <s> INTERNET 0.0000
-2.1931 <s> NICE 0.0000
-1.0170 <s> OPEN -0.1996
-2.1931 <s> QUICK 0.0000
-2.1931 <s> REBOOT 0.0000
-2.1931 <s> RUN -0.2218
-2.1931 <s> SCAN 0.0000
-2.1931 <s> SHUTDOWN 0.0000
-2.1931 <s> SLEEP 0.0000
-2.1931 <s> TELL 0.0000
-2.1931 <s> THANK 0.0000
-2.1931 <s> WELCOME 0.0000
-1.8921 <s> WHAT 0.0000
-1.8921 <s> WHO 0.0000
-2.1931 <s> WOW 0.0000
-0.3010 ABOUT YOU -0.1761
-0.6021 AM OVI 0.0000
-0.6021 AM YOUR -0.2041
-0.3010 ARE YOU -0.1761
-0.3010 CAN YOU -0.2430
-0.9542 CHROME </s> -0.3010
-0.4102 CHROME OPEN -0.1513
-0.3010 CLOS WEATHER 0.0000
-1.4150 CLOSE CHROME -0.2499
-1.4150 CLOSE FILE 0.0000
-1.4150 CLOSE FIREFOX -0.2499
-1.4150 CLOSE INTERNET 0.0000
-1.4150 CLOSE NARRATOR 0.0000
-1.4150 CLOSE NOTEPAD 0.0000
-1.4150 CLOSE PAINT 0.0000
-1.4150 CLOSE RUN -0.1249
-1.4150 CLOSE SNIPPING 0.0000
-1.4150 CLOSE STICKY 0.0000
-1.4150 CLOSE TASK 0.0000
-1.1139 CLOSE WINDOWS -0.1249
-0.4771 DEFENDER </s> -0.3010
-1.0792 DEFENDER START 0.0000
-1.0792 DEFENDER STOP 0.0000
-0.3010 DONT LIKE -0.1761
-0.3010 DRIVE </s> -0.3010
-0.3010 EJECT DRIVE 0.0000
-0.7404 EXPLORER </s> -0.3010
-0.4973 EXPLORER OPEN -0.1513
-0.3010 FACEBOOK </s> -0.3010
-0.3010 FATHER </s> -0.3010
-0.3010 FILE EXPLORER -0.2139
-0.3010 FIND IP 0.0000
-0.9542 FIREFOX </s> -0.3010
-0.4102 FIREFOX OPEN -0.1513
-0.3010 GITHUB </s> -0.3010
-0.3010 GMAIL </s> -0.3010
-0.3010 GOOGLE </s> -0.3010
-0.3010 HAHAHA </s> -0.3010
-0.3010 HAZEL </s> -0.3010
-0.3010 HEAD </s> -0.3010
-0.3010 HELP ME -0.1761
-0.3010 HI </s> -0.3010
-0.3010 HIT YOUR -0.2553
-0.3010 HOW OLD 0.0000
-0.6021 I AM 0.0000
-0.9031 I DONT 0.0000
-0.9031 I HIT 0.0000
-0.3010 INTERNET EXPLORER 0.0000
-0.3010 IP </s> -0.3010
-0.7782 IS IT 0.0000
-0.4771 IS YOUR -0.1461
-0.3010 IT </s> -0.3010
-0.3010 JENNIFER LOPEZ 0.0000
-0.6021 LIKE JENNIFER 0.0000
-0.6021 LIKE YOUR -0.2553
-0.3010 LOPEZ </s> -0.3010
-0.3010 MAGNIFIER </s> -0.3010
-0.3010 MAKE YOU -0.1761
-0.3010 MANAGER </s> -0.3010
-0.6021 ME </s> -0.3010
-0.6021 ME ABOUT 0.0000
-0.3010 MEDIAPLAYER </s> -0.3010
-0.3010 MEET YOU -0.1761
-0.3010 MONITORING </s> -0.3010
-0.3010 NAME </s> -0.3010
-0.3010 NARRATOR </s> -0.3010
-0.3010 NICE TO 0.0000
-0.3010 NOTE </s> -0.3010
-0.3010 NOTEPAD </s> -0.3010
-0.3010 OLD ARE 0.0000
-1.8573 OPEN CHROME -0.2499
-1.3802 OPEN FACEBOOK 0.0000
-1.8573 OPEN FILE 0.0000
-1.8573 OPEN FIREFOX -0.2499
-1.3802 OPEN GITHUB 0.0000
-1.3802 OPEN GMAIL 0.0000
-1.3802 OPEN GOOGLE 0.0000
-1.8573 OPEN INTERNET 0.0000
-1.8573 OPEN MAGNIFIER 0.0000
-1.8573 OPEN NARRATOR 0.0000
-1.8573 OPEN NOTEPAD 0.0000
-1.8573 OPEN PAINT 0.0000
-1.8573 OPEN RUN -0.1249
-1.8573 OPEN SNIPPING 0.0000
-1.8573 OPEN STICKY 0.0000
-1.8573 OPEN TASK 0.0000
-1.3802 OPEN TWITTER 0.0000
-1.8573 OPEN WEATHER 0.0000
-1.3802 OPEN WIKIPEDIA 0.0000
-1.5563 OPEN WINDOWS -0.1249
-1.3802 OPEN YOUTUBE 0.0000
-0.3010 OVI </s> -0.3010
-0.3010 PAINT </s> -0.3010
-0.3010 QUICK SCAN 0.0000
-0.3010 REBOOT WINDOWS -0.2218
-0.4771 RUN </s> -0.3010
-0.7782 RUN TREE 0.0000
-0.3010 SCAN WINDOWS -0.1919
-0.3010 SHUTDOWN WINDOWS -0.2218
-0.3010 SING </s> -0.3010
-0.3010 SINS LIKE -0.1761
-0.3010 SLEEP WINDOWS -0.2218
-0.3010 SNIPPING TOOL 0.0000
-0.3010 SONG </s> -0.3010
-0.3010 START MONITORING 0.0000
-0.3010 STICKY NOTE 0.0000
-0.3010 STOP MONITORING 0.0000
-0.3010 TASK MANAGER 0.0000
-0.3010 TELL ME -0.1761
-0.3010 THANK YOU -0.2730
-0.3010 TIME IS -0.2218
-0.3010 TO MEET 0.0000
-0.3010 TOOL </s> -0.3010
-0.3010 TREE </s> -0.3010
-0.3010 TWITTER </s> -0.3010
-0.3010 WEATHER </s> -0.3010
-0.3010 WELCOME </s> -0.3010
-0.6021 WHAT IS -0.1249
-0.6021 WHAT TIME 0.0000
-0.6021 WHO IS -0.1249
-0.6021 WHO MAKE 0.0000
-0.3010 WIKIPEDIA </s> -0.3010
-0.7782 WINDOWS </s> -0.3010
-0.6532 WINDOWS DEFENDER -0.1249
-0.9542 WINDOWS MEDIAPLAYER 0.0000
-0.3010 WOW YOU -0.2730
-0.6021 YOU </s> -0.3010
-1.2041 YOU HAZEL 0.0000
-1.2041 YOU HELP 0.0000
-1.2041 YOU SING 0.0000
-1.2041 YOU SINS 0.0000
-0.6990 YOUR FATHER 0.0000
-1.0000 YOUR HEAD 0.0000
-1.0000 YOUR NAME 0.0000
-1.0000 YOUR SONG 0.0000
-0.3010 YOUTUBE </s> -0.3010

\3-grams:
-0.3010 <s> CAN YOU
-0.3010 <s> CHROME OPEN
-0.3010 <s> CLOS WEATHER
-1.4150 <s> CLOSE CHROME
-1.4150 <s> CLOSE FILE
-1.4150 <s> CLOSE FIREFOX
-1.4150 <s> CLOSE INTERNET
-1.4150 <s> CLOSE NARRATOR
-1.4150 <s> CLOSE NOTEPAD
-1.4150 <s> CLOSE PAINT
-1.4150 <s> CLOSE RUN
-1.4150 <s> CLOSE SNIPPING
-1.4150 <s> CLOSE STICKY
-1.4150 <s> CLOSE TASK
-1.1139 <s> CLOSE WINDOWS
-0.6021 <s> DEFENDER START
-0.6021 <s> DEFENDER STOP
-0.3010 <s> EJECT DRIVE
-0.3010 <s> FIND IP
-0.3010 <s> FIREFOX OPEN
-0.3010 <s> HAHAHA </s>
-0.3010 <s> HI </s>
-0.3010 <s> HOW OLD
-0.6021 <s> I AM
-0.9031 <s> I DONT
-0.9031 <s> I HIT
-0.3010 <s> INTERNET EXPLORER
-0.3010 <s> NICE TO
-1.4771 <s> OPEN CHROME
-1.4771 <s> OPEN FILE
-1.4771 <s> OPEN FIREFOX
-1.4771 <s> OPEN INTERNET
-1.4771 <s> OPEN MAGNIFIER
-1.4771 <s> OPEN NARRATOR
-1.4771 <s> OPEN NOTEPAD
-1.4771 <s> OPEN PAINT
-1.4771 <s> OPEN RUN
-1.4771 <s> OPEN SNIPPING
-1.4771 <s> OPEN STICKY
-1.4771 <s> OPEN TASK
-1.4771 <s> OPEN WEATHER
-1.1761 <s> OPEN WINDOWS
-0.3010 <s> QUICK SCAN
-0.3010 <s> REBOOT WINDOWS
-0.3010 <s> RUN TREE
-0.3010 <s> SCAN WINDOWS
-0.3010 <s> SHUTDOWN WINDOWS
-0.3010 <s> SLEEP WINDOWS
-0.3010 <s> TELL ME
-0.3010 <s> THANK YOU
-0.3010 <s> WELCOME </s>
-0.6021 <s> WHAT IS
-0.6021 <s> WHAT TIME
-0.6021 <s> WHO IS
-0.6021 <s> WHO MAKE
-0.3010 <s> WOW YOU
-0.3010 ABOUT YOU </s>
-0.3010 AM OVI </s>
-0.3010 AM YOUR FATHER
-0.3010 ARE YOU </s>
-0.6021 CAN YOU HELP
-0.6021 CAN YOU SING
-1.1461 CHROME OPEN FACEBOOK
-1.1461 CHROME OPEN GITHUB
-1.1461 CHROME OPEN GMAIL
-1.1461 CHROME OPEN GOOGLE
-1.1461 CHROME OPEN TWITTER
-1.1461 CHROME OPEN WIKIPEDIA
-1.1461 CHROME OPEN YOUTUBE
-0.3010 CLOS WEATHER </s>
-0.3010 CLOSE CHROME </s>
-0.3010 CLOSE FILE EXPLORER
-0.3010 CLOSE FIREFOX </s>
-0.3010 CLOSE INTERNET EXPLORER
-0.3010 CLOSE NARRATOR </s>
-0.3010 CLOSE NOTEPAD </s>
-0.3010 CLOSE PAINT </s>
-0.3010 CLOSE RUN </s>
-0.3010 CLOSE SNIPPING TOOL
-0.3010 CLOSE STICKY NOTE
-0.3010 CLOSE TASK MANAGER
-0.6021 CLOSE WINDOWS DEFENDER
-0.6021 CLOSE WINDOWS MEDIAPLAYER
-0.3010 DEFENDER START MONITORING
-0.3010 DEFENDER STOP MONITORING
-0.3010 DONT LIKE YOUR
-0.3010 EJECT DRIVE </s>
-1.1461 EXPLORER OPEN FACEBOOK
-1.1461 EXPLORER OPEN GITHUB
-1.1461 EXPLORER OPEN GMAIL
-1.1461 EXPLORER OPEN GOOGLE
-1.1461 EXPLORER OPEN TWITTER
-1.1461 EXPLORER OPEN WIKIPEDIA
-1.1461 EXPLORER OPEN YOUTUBE
-0.3010 FILE EXPLORER </s>
-0.3010 FIND IP </s>
-1.1461 FIREFOX OPEN FACEBOOK
-1.1461 FIREFOX OPEN GITHUB
-1.1461 FIREFOX OPEN GMAIL
-1.1461 FIREFOX OPEN GOOGLE
-1.1461 FIREFOX OPEN TWITTER
-1.1461 FIREFOX OPEN WIKIPEDIA
-1.1461 FIREFOX OPEN YOUTUBE
-0.3010 HELP ME </s>
-0.3010 HIT YOUR HEAD
-0.3010 HOW OLD ARE
-0.6021 I AM OVI
-0.6021 I AM YOUR
-0.3010 I DONT LIKE
-0.3010 I HIT YOUR
-0.9542 INTERNET EXPLORER </s>
-0.4102 INTERNET EXPLORER OPEN
-0.3010 IS IT </s>
-0.6021 IS YOUR FATHER
-0.6021 IS YOUR NAME
-0.3010 JENNIFER LOPEZ </s>
-0.3010 LIKE JENNIFER LOPEZ
-0.3010 LIKE YOUR SONG
-0.3010 MAKE YOU </s>
-0.3010 ME ABOUT YOU
-0.3010 MEET YOU </s>
-0.3010 NICE TO MEET
-0.3010 OLD ARE YOU
-0.3010 OPEN CHROME </s>
-0.3010 OPEN FACEBOOK </s>
-0.3010 OPEN FILE EXPLORER
-0.3010 OPEN FIREFOX </s>
-0.3010 OPEN GITHUB </s>
-0.3010 OPEN GMAIL </s>
-0.3010 OPEN GOOGLE </s>
-0.3010 OPEN INTERNET EXPLORER
-0.3010 OPEN MAGNIFIER </s>
-0.3010 OPEN NARRATOR </s>
-0.3010 OPEN NOTEPAD </s>
-0.3010 OPEN PAINT </s>
-0.3010 OPEN RUN </s>
-0.3010 OPEN SNIPPING TOOL
-0.3010 OPEN STICKY NOTE
-0.3010 OPEN TASK MANAGER
-0.3010 OPEN TWITTER </s>
-0.3010 OPEN WEATHER </s>
-0.3010 OPEN WIKIPEDIA </s>
-0.6021 OPEN WINDOWS DEFENDER
-0.6021 OPEN WINDOWS MEDIAPLAYER
-0.3010 OPEN YOUTUBE </s>
-0.3010 QUICK SCAN WINDOWS
-0.3010 REBOOT WINDOWS </s>
-0.3010 RUN TREE </s>
-0.3010 SCAN WINDOWS DEFENDER
-0.3010 SHUTDOWN WINDOWS </s>
-0.3010 SINS LIKE JENNIFER
-0.3010 SLEEP WINDOWS </s>
-0.3010 SNIPPING TOOL </s>
-0.3010 START MONITORING </s>
-0.3010 STICKY NOTE </s>
-0.3010 STOP MONITORING </s>
-0.3010 TASK MANAGER </s>
-0.3010 TELL ME ABOUT
-0.3010 THANK YOU HAZEL
-0.3010 TIME IS IT
-0.3010 TO MEET YOU
-0.3010 WHAT IS YOUR
-0.3010 WHAT TIME IS
-0.3010 WHO IS YOUR
-0.3010 WHO MAKE YOU
-0.3010 WINDOWS DEFENDER </s>
-0.3010 WINDOWS MEDIAPLAYER </s>
-0.3010 WOW YOU SINS
-0.3010 YOU HAZEL </s>
-0.3010 YOU HELP ME
-0.3010 YOU SING </s>
-0.3010 YOU SINS LIKE
-0.3010 YOUR FATHER </s>
-0.3010 YOUR HEAD </s>
-0.3010 YOUR NAME </s>
-0.3010 YOUR SONG </s>

\end\
