Language model created by QuickLM on Sat Jun 17 14:24:09 EDT 2017
Copyright (c) 1996-2010 Carnegie Mellon University and Alexander I. Rudnicky

The model is in standard ARPA format, designed by Doug Paul while he was at MITRE.

The code that was used to produce this language model is available in Open Source.
Please visit http://www.speech.cs.cmu.edu/tools/ for more information

The (fixed) discount mass is 0.5. The backoffs are computed using the ratio method.
This model based on a corpus of 4 sentences and 7 words

\data\
ngram 1=7
ngram 2=9
ngram 3=9

\1-grams:
-0.9542 </s> -0.3010
-0.9542 <s> -0.2499
-1.2553 BROWSER -0.2499
-1.2553 CLOSE -0.2499
-1.2553 FILE -0.2762
-1.2553 MANAGER -0.2499
-1.2553 OPEN -0.2499

\2-grams:
-0.6021 <s> CLOSE 0.0000
-0.6021 <s> OPEN 0.0000
-0.3010 BROWSER </s> -0.3010
-0.6021 CLOSE BROWSER 0.0000
-0.6021 CLOSE FILE 0.0000
-0.3010 FILE MANAGER 0.0000
-0.3010 MANAGER </s> -0.3010
-0.6021 OPEN BROWSER 0.0000
-0.6021 OPEN FILE 0.0000

\3-grams:
-0.6021 <s> CLOSE BROWSER
-0.6021 <s> CLOSE FILE
-0.6021 <s> OPEN BROWSER
-0.6021 <s> OPEN FILE
-0.3010 CLOSE BROWSER </s>
-0.3010 CLOSE FILE MANAGER
-0.3010 FILE MANAGER </s>
-0.3010 OPEN BROWSER </s>
-0.3010 OPEN FILE MANAGER

\end\
