Language model created by QuickLM on Thu Jun 22 17:57:16 EDT 2017
Copyright (c) 1996-2010 Carnegie Mellon University and Alexander I. Rudnicky

The model is in standard ARPA format, designed by Doug Paul while he was at MITRE.

The code that was used to produce this language model is available in Open Source.
Please visit http://www.speech.cs.cmu.edu/tools/ for more information

The (fixed) discount mass is 0.5. The backoffs are computed using the ratio method.
This model based on a corpus of 44 sentences and 55 words

\data\
ngram 1=55
ngram 2=98
ngram 3=79

\1-grams:
-0.8829 </s> -0.3010
-0.8829 <s> -0.2371
-2.5263 A -0.2997
-2.5263 AGE -0.2401
-2.5263 AM -0.2997
-2.5263 ARE -0.2971
-2.2253 BROWSER -0.2401
-2.5263 BYE -0.2401
-2.2253 CAM -0.2401
-2.5263 CHECK -0.2984
-1.9243 CLOSE -0.2906
-2.5263 D -0.2401
-2.5263 DRIVE -0.2401
-1.9243 EXIT -0.2906
-2.5263 FACEBOOK -0.2401
-2.5263 FULL -0.2997
-2.5263 GOOGLE -0.2401
-2.5263 HAI -0.2401
-2.5263 HI -0.2401
-2.5263 HIBERNAT -0.2401
-2.5263 HOW -0.2997
-2.2253 I -0.2984
-2.5263 INSTRUCTION -0.2401
-2.5263 MADE -0.2971
-2.2253 MAGNIFIER -0.2401
-2.5263 MAIL -0.2401
-2.5263 MAKES -0.2971
-2.2253 MEDIAPLAYER -0.2401
-2.5263 NAME -0.2401
-2.2253 NOTE -0.2401
-2.5263 ONE -0.2401
-1.6812 OPEN -0.2839
-2.5263 OVI -0.2401
-2.5263 P -0.2401
-2.2253 PAINT -0.2401
-2.5263 REBOOT -0.2401
-2.2253 RUN -0.2984
-2.5263 SAY -0.2997
-2.5263 SCAN -0.2401
-2.5263 SHUTDOWN -0.2401
-2.5263 SING -0.2997
-2.2253 SNIPPING -0.2984
-2.5263 SONG -0.2401
-2.5263 START -0.2984
-2.5263 STOP -0.2401
-2.2253 TASKMANAGER -0.2401
-2.5263 TIME -0.2401
-2.2253 TOOL -0.2401
-2.5263 TREE -0.2401
-2.5263 TWITTER -0.2401
-2.2253 WHO -0.2984
-2.5263 WOW -0.2401
-2.0492 YOU -0.2401
-2.2253 YOUR -0.2984
-2.5263 YOUTUBE -0.2401

\2-grams:
-1.9445 <s> BYE 0.0000
-1.9445 <s> CAM 0.0000
-1.9445 <s> CHECK 0.0000
-1.3424 <s> CLOSE 0.0000
-1.3424 <s> EXIT 0.0000
-1.9445 <s> FACEBOOK 0.0000
-1.9445 <s> FULL 0.0000
-1.9445 <s> GOOGLE 0.0000
-1.9445 <s> HAI 0.0000
-1.9445 <s> HI 0.0000
-1.9445 <s> HIBERNAT 0.0000
-1.9445 <s> HOW 0.0000
-1.9445 <s> I -0.1761
-1.9445 <s> INSTRUCTION 0.0000
-1.9445 <s> MAIL 0.0000
-1.9445 <s> ONE 0.0000
-1.0994 <s> OPEN -0.0000
-1.9445 <s> REBOOT 0.0000
-1.6435 <s> RUN 0.0000
-1.9445 <s> SAY 0.0000
-1.9445 <s> SHUTDOWN 0.0000
-1.9445 <s> SING 0.0000
-1.9445 <s> START 0.0000
-1.9445 <s> STOP 0.0000
-1.9445 <s> TWITTER 0.0000
-1.6435 <s> WHO 0.0000
-1.9445 <s> WOW 0.0000
-1.6435 <s> YOUR 0.0000
-1.9445 <s> YOUTUBE 0.0000
-0.3010 A SONG 0.0000
-0.3010 AGE </s> -0.3010
-0.3010 AM OVI 0.0000
-0.3010 ARE YOU 0.0000
-0.3010 BROWSER </s> -0.3010
-0.3010 BYE </s> -0.3010
-0.3010 CAM </s> -0.3010
-0.3010 CHECK I -0.1761
-0.9031 CLOSE BROWSER 0.0000
-0.9031 CLOSE MEDIAPLAYER 0.0000
-0.9031 CLOSE NOTE 0.0000
-0.9031 CLOSE TASKMANAGER 0.0000
-0.3010 D </s> -0.3010
-0.3010 DRIVE </s> -0.3010
-0.9031 EXIT CAM 0.0000
-0.9031 EXIT MAGNIFIER 0.0000
-0.9031 EXIT PAINT 0.0000
-0.9031 EXIT SNIPPING 0.0000
-0.3010 FACEBOOK </s> -0.3010
-0.3010 FULL SCAN 0.0000
-0.3010 GOOGLE </s> -0.3010
-0.3010 HAI </s> -0.3010
-0.3010 HI </s> -0.3010
-0.3010 HIBERNAT </s> -0.3010
-0.3010 HOW ARE 0.0000
-0.6021 I AM 0.0000
-0.6021 I P 0.0000
-0.3010 INSTRUCTION </s> -0.3010
-0.3010 MADE YOU 0.0000
-0.3010 MAGNIFIER </s> -0.3010
-0.3010 MAIL </s> -0.3010
-0.3010 MAKES YOU 0.0000
-0.3010 MEDIAPLAYER </s> -0.3010
-0.3010 NAME </s> -0.3010
-0.3010 NOTE </s> -0.3010
-0.3010 ONE </s> -0.3010
-1.1461 OPEN BROWSER 0.0000
-1.1461 OPEN DRIVE 0.0000
-1.1461 OPEN MEDIAPLAYER 0.0000
-1.1461 OPEN NOTE 0.0000
-1.1461 OPEN PAINT 0.0000
-1.1461 OPEN SNIPPING 0.0000
-1.1461 OPEN TASKMANAGER 0.0000
-0.3010 OVI </s> -0.3010
-0.3010 P </s> -0.3010
-0.3010 PAINT </s> -0.3010
-0.3010 REBOOT </s> -0.3010
-0.6021 RUN D 0.0000
-0.6021 RUN TREE 0.0000
-0.3010 SAY TIME 0.0000
-0.3010 SCAN </s> -0.3010
-0.3010 SHUTDOWN </s> -0.3010
-0.3010 SING A 0.0000
-0.3010 SNIPPING TOOL 0.0000
-0.3010 SONG </s> -0.3010
-0.3010 START MAGNIFIER 0.0000
-0.3010 STOP </s> -0.3010
-0.3010 TASKMANAGER </s> -0.3010
-0.3010 TIME </s> -0.3010
-0.3010 TOOL </s> -0.3010
-0.3010 TREE </s> -0.3010
-0.3010 TWITTER </s> -0.3010
-0.6021 WHO MADE 0.0000
-0.6021 WHO MAKES 0.0000
-0.3010 WOW </s> -0.3010
-0.3010 YOU </s> -0.3010
-0.6021 YOUR AGE 0.0000
-0.6021 YOUR NAME 0.0000
-0.3010 YOUTUBE </s> -0.3010

\3-grams:
-0.3010 <s> BYE </s>
-0.3010 <s> CAM </s>
-0.3010 <s> CHECK I
-0.9031 <s> CLOSE BROWSER
-0.9031 <s> CLOSE MEDIAPLAYER
-0.9031 <s> CLOSE NOTE
-0.9031 <s> CLOSE TASKMANAGER
-0.9031 <s> EXIT CAM
-0.9031 <s> EXIT MAGNIFIER
-0.9031 <s> EXIT PAINT
-0.9031 <s> EXIT SNIPPING
-0.3010 <s> FACEBOOK </s>
-0.3010 <s> FULL SCAN
-0.3010 <s> GOOGLE </s>
-0.3010 <s> HAI </s>
-0.3010 <s> HI </s>
-0.3010 <s> HIBERNAT </s>
-0.3010 <s> HOW ARE
-0.3010 <s> I AM
-0.3010 <s> INSTRUCTION </s>
-0.3010 <s> MAIL </s>
-0.3010 <s> ONE </s>
-1.1461 <s> OPEN BROWSER
-1.1461 <s> OPEN DRIVE
-1.1461 <s> OPEN MEDIAPLAYER
-1.1461 <s> OPEN NOTE
-1.1461 <s> OPEN PAINT
-1.1461 <s> OPEN SNIPPING
-1.1461 <s> OPEN TASKMANAGER
-0.3010 <s> REBOOT </s>
-0.6021 <s> RUN D
-0.6021 <s> RUN TREE
-0.3010 <s> SAY TIME
-0.3010 <s> SHUTDOWN </s>
-0.3010 <s> SING A
-0.3010 <s> START MAGNIFIER
-0.3010 <s> STOP </s>
-0.3010 <s> TWITTER </s>
-0.6021 <s> WHO MADE
-0.6021 <s> WHO MAKES
-0.3010 <s> WOW </s>
-0.6021 <s> YOUR AGE
-0.6021 <s> YOUR NAME
-0.3010 <s> YOUTUBE </s>
-0.3010 A SONG </s>
-0.3010 AM OVI </s>
-0.3010 ARE YOU </s>
-0.3010 CHECK I P
-0.3010 CLOSE BROWSER </s>
-0.3010 CLOSE MEDIAPLAYER </s>
-0.3010 CLOSE NOTE </s>
-0.3010 CLOSE TASKMANAGER </s>
-0.3010 EXIT CAM </s>
-0.3010 EXIT MAGNIFIER </s>
-0.3010 EXIT PAINT </s>
-0.3010 EXIT SNIPPING TOOL
-0.3010 FULL SCAN </s>
-0.3010 HOW ARE YOU
-0.3010 I AM OVI
-0.3010 I P </s>
-0.3010 MADE YOU </s>
-0.3010 MAKES YOU </s>
-0.3010 OPEN BROWSER </s>
-0.3010 OPEN DRIVE </s>
-0.3010 OPEN MEDIAPLAYER </s>
-0.3010 OPEN NOTE </s>
-0.3010 OPEN PAINT </s>
-0.3010 OPEN SNIPPING TOOL
-0.3010 OPEN TASKMANAGER </s>
-0.3010 RUN D </s>
-0.3010 RUN TREE </s>
-0.3010 SAY TIME </s>
-0.3010 SING A SONG
-0.3010 SNIPPING TOOL </s>
-0.3010 START MAGNIFIER </s>
-0.3010 WHO MADE YOU
-0.3010 WHO MAKES YOU
-0.3010 YOUR AGE </s>
-0.3010 YOUR NAME </s>

\end\